[13538,{"inputNodes":5,"hiddenNodes":8,"outputNodes":2,"weightsIH":{"matrix":[[0.570032454908274,0.12396470059314857,0.52344013031591,-0.5525267592578862,0.6439799548251397],[0.20284065571555643,0.603657733950661,-0.3630954515521212,0.1222114838650945,0.543991435264287],[-0.7849172014045116,0.13778253413256136,0.5874726145218951,-0.3261465825950618,-0.489378001761573],[0.6414851463242313,0.7447103712082455,-0.3741457078340438,0.9588453293470602,0.3528243526607102],[-0.23831483945969278,0.5457425974370667,-0.5783368150251182,-0.09171267020278506,-0.9447751324823825],[0.9341028206170923,0.33282784496775353,-0.1103538398861641,0.3398331988861467,-0.9379931521285292],[0.28322855825587134,-0.42211608702984393,-0.6879967087193257,-0.45698401130593846,0.28183979402983983],[0.22204490679208466,-0.7872689459657283,-0.6954846445966631,0.2365738920415199,-0.6072831227378281]],"rows":8,"cols":5},"weightsHO":{"matrix":[[1.6855897918995544,-0.7263732960315044,0.7871784634462857,-0.47117335774513847,-0.10397190160141845,-0.022287780832545234,-0.4772893616850009,-0.6183989290474083],[-0.5053535404507927,0.9567469348752637,-0.17098945872679927,0.40629157221530643,-0.4945622034240946,-0.6053967819993777,0.13698690140411873,0.3115061372480694]],"rows":2,"cols":8},"biasH":{"matrix":[[0.17775839577042318],[0.6985565651950327],[-0.8195816228258779],[0.008664763272385967],[-0.0359771880162143],[1.8843178200811115],[-0.9776349982957866],[0.8055652801752107]],"rows":8,"cols":1},"biasO":{"matrix":[[-0.3477857148619268],[-0.37468189169252786]],"rows":2,"cols":1},"activationFuncType":"Sigmoid"}]